digraph Tree {
node [shape=box, style="filled, rounded", color="black", fontname="helvetica"] ;
edge [fontname="helvetica"] ;
0 [label="od280/od315_of_diluted_wines <= 2.475\nsquared_error = 0.597\nsamples = 178\nvalue = 0.938", fillcolor="#f2c19e"] ;
1 [label="od280/od315_of_diluted_wines <= 2.115\nsquared_error = 0.208\nsamples = 68\nvalue = 1.706", fillcolor="#e78c4a"] ;
0 -> 1 [labeldistance=2.5, labelangle=45, headlabel="True"] ;
2 [label="squared_error = 0.116\nsamples = 52\nvalue = 1.865", fillcolor="#e58139"] ;
1 -> 2 ;
3 [label="squared_error = 0.152\nsamples = 16\nvalue = 1.188", fillcolor="#efb083"] ;
1 -> 3 ;
4 [label="proline <= 726.5\nsquared_error = 0.249\nsamples = 110\nvalue = 0.464", fillcolor="#f9e2d2"] ;
0 -> 4 [labeldistance=2.5, labelangle=-45, headlabel="False"] ;
5 [label="squared_error = 0.02\nsamples = 49\nvalue = 0.98", fillcolor="#f2be9a"] ;
4 -> 5 ;
6 [label="squared_error = 0.047\nsamples = 61\nvalue = 0.049", fillcolor="#ffffff"] ;
4 -> 6 ;
}